digraph Tree {
node [shape=box, style="filled, rounded", color="black", fontname="helvetica"] ;
edge [fontname="helvetica"] ;
0 [label="Title <= 1.5\ngini = 0.47\nsamples = 576\nvalue = [547, 344]\nclass = Not survived", fillcolor="#f5d0b6"] ;
1 [label="Fare <= 1.5\ngini = 0.26\nsamples = 335\nvalue = [440, 79]\nclass = Not survived", fillcolor="#ea985d"] ;
0 -> 1 [labeldistance=2.5, labelangle=45, headlabel="True"] ;
2 [label="Embarked <= 0.5\ngini = 0.16\nsamples = 207\nvalue = [291, 27]\nclass = Not survived", fillcolor="#e78d4b"] ;
1 -> 2 ;
3 [label="Fare <= 0.5\ngini = 0.14\nsamples = 170\nvalue = [241, 20]\nclass = Not survived", fillcolor="#e78b49"] ;
2 -> 3 ;
4 [label="gini = 0.15\nsamples = 90\nvalue = [127.0, 11.0]\nclass = Not survived", fillcolor="#e78c4a"] ;
3 -> 4 ;
5 [label="gini = 0.14\nsamples = 80\nvalue = [114, 9]\nclass = Not survived", fillcolor="#e78b49"] ;
3 -> 5 ;
6 [label="Fare_Per_Person <= 0.5\ngini = 0.22\nsamples = 37\nvalue = [50, 7]\nclass = Not survived", fillcolor="#e99355"] ;
2 -> 6 ;
7 [label="gini = 0.2\nsamples = 34\nvalue = [48, 6]\nclass = Not survived", fillcolor="#e89152"] ;
6 -> 7 ;
8 [label="gini = 0.44\nsamples = 3\nvalue = [2, 1]\nclass = Not survived", fillcolor="#f2c09c"] ;
6 -> 8 ;
9 [label="Deck <= 5.5\ngini = 0.38\nsamples = 128\nvalue = [149, 52]\nclass = Not survived", fillcolor="#eead7e"] ;
1 -> 9 ;
10 [label="Fare <= 2.5\ngini = 0.47\nsamples = 56\nvalue = [61, 36]\nclass = Not survived", fillcolor="#f4cbae"] ;
9 -> 10 ;
11 [label="gini = 0.47\nsamples = 15\nvalue = [10, 16]\nclass = Survived", fillcolor="#b5daf5"] ;
10 -> 11 ;
12 [label="gini = 0.4\nsamples = 41\nvalue = [51, 20]\nclass = Not survived", fillcolor="#efb287"] ;
10 -> 12 ;
13 [label="not_alone <= 0.5\ngini = 0.26\nsamples = 72\nvalue = [88, 16]\nclass = Not survived", fillcolor="#ea985d"] ;
9 -> 13 ;
14 [label="gini = 0.17\nsamples = 43\nvalue = [60, 6]\nclass = Not survived", fillcolor="#e88e4d"] ;
13 -> 14 ;
15 [label="gini = 0.39\nsamples = 29\nvalue = [28, 10]\nclass = Not survived", fillcolor="#eeae80"] ;
13 -> 15 ;
16 [label="Title <= 4.5\ngini = 0.41\nsamples = 241\nvalue = [107.0, 265.0]\nclass = Survived", fillcolor="#89c5ef"] ;
0 -> 16 [labeldistance=2.5, labelangle=-45, headlabel="False"] ;
17 [label="Fare_Per_Person <= 0.5\ngini = 0.38\nsamples = 225\nvalue = [87, 258]\nclass = Survived", fillcolor="#7cbeee"] ;
16 -> 17 ;
18 [label="SibSp <= 2.5\ngini = 0.48\nsamples = 106\nvalue = [64, 95]\nclass = Survived", fillcolor="#bedff7"] ;
17 -> 18 ;
19 [label="gini = 0.42\nsamples = 83\nvalue = [38, 89]\nclass = Survived", fillcolor="#8ec7f0"] ;
18 -> 19 ;
20 [label="gini = 0.3\nsamples = 23\nvalue = [26, 6]\nclass = Not survived", fillcolor="#eb9e67"] ;
18 -> 20 ;
21 [label="Fare_Per_Person <= 1.5\ngini = 0.22\nsamples = 119\nvalue = [23, 163]\nclass = Survived", fillcolor="#55abe9"] ;
17 -> 21 ;
22 [label="gini = 0.27\nsamples = 87\nvalue = [22, 115]\nclass = Survived", fillcolor="#5fb0ea"] ;
21 -> 22 ;
23 [label="gini = 0.04\nsamples = 32\nvalue = [1.0, 48.0]\nclass = Survived", fillcolor="#3d9fe6"] ;
21 -> 23 ;
24 [label="Deck <= 2.5\ngini = 0.38\nsamples = 16\nvalue = [20, 7]\nclass = Not survived", fillcolor="#eead7e"] ;
16 -> 24 ;
25 [label="gini = 0.0\nsamples = 3\nvalue = [0, 4]\nclass = Survived", fillcolor="#399de5"] ;
24 -> 25 ;
26 [label="Fare <= 3.5\ngini = 0.23\nsamples = 13\nvalue = [20, 3]\nclass = Not survived", fillcolor="#e99457"] ;
24 -> 26 ;
27 [label="gini = 0.09\nsamples = 12\nvalue = [20, 1]\nclass = Not survived", fillcolor="#e68743"] ;
26 -> 27 ;
28 [label="gini = 0.0\nsamples = 1\nvalue = [0, 2]\nclass = Survived", fillcolor="#399de5"] ;
26 -> 28 ;
}